{
    "labels": {
        "labels": [ "string", "brass" ],
        "rows": 2
    },
    "mlp": {
        "layers": [
            {
                "activation": 2,
                "biases": [ 0.07262184456318274, 0.04739875978033398, 0.41438744596795957, 0.08789430808598882, 0.13261141306612967, 0.7021931854460012, 0.044325865794155435, -0.026556176474764655 ],
                "cols": 8,
                "rows": 13,
                "weights": [
                    [ -0.5708710504052955, -0.3002412296091118, -0.37822201996217664, 0.36250113678557405, 0.23203381190322617, -0.08118207673066893, -0.10118491441788457, -0.0032848398720129062 ],
                    [ -0.40533138885946035, 0.025198055838209367, -0.17521681187377489, 0.44686262418955547, 0.128885926224966, 0.45573987571534297, 0.1807835955861843, 0.3862570093348148 ],
                    [ 0.02043600416599303, -0.27251250658690807, 0.02644310747968083, -0.3328181486288768, -0.5261586751977423, -0.21010951020465488, 0.1586781969204466, -0.08357703665388831 ],
                    [ -0.20435120911911572, -0.5789804549843274, 0.409628330747075, -1.0156999439044203, -0.3965413134020719, 0.7446306242018764, 0.4276632157814803, -0.06203058338627928 ],
                    [ -0.034948752789790365, 0.1939140413930927, 0.23003482998656058, -0.3601446051952386, -0.5307440432716647, 0.2136102074954693, -0.24586171833458975, 0.1574105231383618 ],
                    [ 0.4513827894700859, 0.18411043595517018, -0.44781457103359856, 0.6637878044998256, -0.20230183369230964, -0.3101433787970818, -0.22445561931200506, -0.33155906702498694 ],
                    [ 0.16138847375173299, -0.11834764680462154, -0.08664199947637628, 0.5659037714960358, -0.23395971889184472, 0.106169415715299, 0.13236096006179915, 0.3763866235784831 ],
                    [ -0.337267662827334, -0.34112529846599, -0.2316795132861913, 0.1574824559541022, -0.5465060823895628, -0.3174716303178697, 0.4807177030990943, 0.3496761636024775 ],
                    [ 0.20058543737762452, 0.17976588148257538, -0.2866348253943242, 0.3993716867347217, -0.461698464757467, -0.5039320806950058, 0.31417425560095597, 0.1722877183892396 ],
                    [ 0.23089327743099067, -0.19808416242757462, 0.36859532059824823, 0.03926409319365228, -0.5993306695287047, -0.49097542417925755, 0.07240556308607102, 0.3327567137946752 ],
                    [ -0.6111538780812815, -0.15353163006576787, 0.30749215951664527, 0.07321608312565182, -0.35578432555528133, 0.20926893090402687, -0.6321968397087696, 0.23227709932561605 ],
                    [ 0.1452349426966336, -0.03208960037131403, -0.2384887797460041, -0.007460782392499678, -0.3098685331578726, 0.45580932345244785, -0.4650213283772705, 0.10797067786464622 ],
                    [ 0.3913117926654083, -0.3232139728360473, -0.7338475075277885, -0.02374458044010518, 0.3561186852209006, 0.2915837656362019, -0.23729604079038172, -0.7661501111129373 ]
                ]
            },
            {
                "activation": 2,
                "biases": [ 0.19186135968120796, 0.12075501539419788, 0.18503056102983736, -0.08246569142316638, 0.2603641099438842, 0.4828079799428291, 0.039642349436788064, 0.0 ],
                "cols": 8,
                "rows": 8,
                "weights": [
                    [ -0.4222906538509593, 0.15315672558804666, -0.2284421036705051, -0.23219251049313966, 0.220646387500518, 0.6104002754351378, 0.48113831471740653, -0.38793860755814213 ],
                    [ -0.4136477690294994, 0.2727082237548061, 0.41473729570857965, -0.48372901983887, 0.16347693587500087, -0.30541941389432464, -0.4833021602191408, -0.5429024476684934 ],
                    [ 0.0884705460463057, -0.5188938471354271, 0.12817221793045144, -0.47644738208591353, -0.4729041406517974, 0.6543627840411104, 0.4380539658094526, -0.3773403302435095 ],
                    [ -0.6009657297709035, 0.40879021706820323, -0.31755284700403474, -0.5453036559914887, 0.832345617414699, -0.7391514371861123, -0.09060468658731596, -0.5973675940345355 ],
                    [ -0.008485989587287183, 0.4142121101500608, -0.1075906086413471, 0.08155208094258375, 0.6868729119068535, 0.08217454632796416, 0.03569653720250855, -0.5087875885737229 ],
                    [ 0.7252054207959416, -0.3845759310841038, 0.40210786369993856, 0.014294949945807862, -0.2333783479974831, 0.9880293286234655, 0.3992384370967052, -0.6116278457685317 ],
                    [ -0.01649147412378917, -0.14373300173745723, -0.020841690592739697, 0.2721501625764182, -0.6162909811814024, 0.7320759992798205, -0.5759950575407088, -0.4480541162048698 ],
                    [ -0.48690956252648643, -0.21922408956616565, -0.20548361955936814, -0.13110778592183894, -0.11235110509562839, 0.6074225304115978, -0.06299039294360681, -0.3294063412510266 ]
                ]
            },
            {
                "activation": 2,
                "biases": [ -0.203902752195885, 0.34003667451028674, 0.09146061470688237, -0.16950514417985413, 0.18607806222090822, 0.28517522302754256, 0.04704613007777526, 0.0 ],
                "cols": 8,
                "rows": 8,
                "weights": [
                    [ -0.4666280922282184, 0.03656979452936057, -0.17204770137944542, -0.23124221221145122, -0.001006211000166309, 0.6574345444239624, 0.47825807261845593, -0.38793860755814213 ],
                    [ -0.4509366563897577, 0.5279546784570548, 0.2543963069516339, -0.46126110074220067, 0.11314148782850372, -0.4726636283531398, -0.4045876474425707, -0.5429024476684934 ],
                    [ -0.0906141887439542, -0.52146972206296, 0.024903269916309992, -0.48604944036857556, -0.393487640918227, 0.15789637712355675, 0.3750380054067634, -0.3773403302435095 ],
                    [ -0.589407529374415, 0.028827502948453432, -0.25200546914226307, -0.5290875328550728, 0.08789067823109625, -0.5318945123314679, -0.0003822026185525892, -0.5973675940345355 ],
                    [ -0.1873801049350658, 0.8524716689660714, -0.2973753476966686, 0.25232245998322445, 0.8511587276995104, -0.1673327639999181, 0.07501380130356242, -0.5087875885737229 ],
                    [ 0.29996503236169, -0.5177726284348918, 0.6528493200782238, 9.512349390782975e-06, -0.2876239241126657, 1.4845686407463135, 0.36885354145023286, -0.6116278457685317 ],
                    [ -0.13923377620925065, -0.15482837140957847, 0.07583990611249954, 0.21898847542917488, -0.6214461615356339, 0.4854902044561741, -0.5705378723064326, -0.4480541162048698 ],
                    [ -0.5212207495655196, -0.30645820500433846, -0.23737187367316018, -0.13163076440234198, -0.26544522583855884, 0.5270544474289902, -0.061480852448020616, -0.3294063412510266 ]
                ]
            },
            {
                "activation": 1,
                "biases": [ 0.049886941401376006, 0.05693865853708056 ],
                "cols": 2,
                "rows": 8,
                "weights": [
                    [ -0.5043130076614343, 0.0718232855014757 ],
                    [ -0.9928031814379886, 0.718615469703954 ],
                    [ 0.12051487632596682, -0.796157125797662 ],
                    [ -0.7014636815428419, 0.06238237560453572 ],
                    [ -0.5275149825371066, 0.7953997080146454 ],
                    [ 1.3558105225758919, -1.103133699583751 ],
                    [ 0.08316189584337125, -0.2578399184136843 ],
                    [ -0.659297892946904, -0.38764237418420844 ]
                ]
            }
        ]
    },
    "_alias": "mlpclassifier",
    "_attributes": [ "activation", "batchsize", "hiddenlayers", "learnrate", "maxiter", "momentum", "validation" ],
    "_activation": 2,
    "_batchsize": 50,
    "_hiddenlayers": [ 8, 8, 8 ],
    "_learnrate": 0.01,
    "_maxiter": 1000,
    "_momentum": 0.9,
    "_validation": 0.2
}